0.00701228,0.00543443,0.00643108,0.00710597,8.53659e-05,0.0047452,0.00250571,0.00353912,0.00196546,0.00353084,0.00281849,0.000310995,0.0068902,0.00494912,-0.195013,-0.195161,0.00699526,0.00932209,0.00637179,0.000651934,0.00706058,0.00711884,0.00643071,0.00092275,0.00865584,0.0087604,0.00596899,0.000783201,0.0032603,0.0059318,0.00574893,0.00218556,0.00276799,0.00913272,-0.299956,-0.299404,-0.196839,-0.19822,0.406482,-0.291228,-0.595283,0.109193,0.207387,0.505763,-0.396497,0.00745307,0.00439011,-0.0935287,-0.496965,-0.790991,-0.0929622,0.501879,0.00714227,0.000164546,0.00552208,0.00968013,0.00396028,0.000464407,0.00527721,0.202964,0.202938,0.300427,-0.19826,0.00266536,-0.400561,0.108877,0.404014,0.201208,0.00374405,0.100782,-0.201736,0.000206746,-0.106981,0.0943997,0.0985334,-0.497892,0.501394,-0.598079,0.30564,-0.190344,0.00954431,-0.599398,0.00305717,0.00188146,0.00170783,0.0034482,-1.09616,-0.192252,-0.698667,-0.591661,-0.699959,-0.595227,-0.0978473,-0.797411,0.194523,-0.202896,-0.0117745,-0.411346,0.179715,-0.2137,-0.222471,-0.314787,-0.014646,0.192213,0.0986812,0.20245,0.207137,0.208122,0.10026,-0.0956968,-0.491079,0.00454146,0.00837697,0.501703,0.302432,-0.0922129,-0.699927,-0.294385,-0.19994,-0.301734,0.294683,0.484785,0.0744137,-0.328236,0.162226,0.447582,0.336395,0.431256,0.135981,-0.260134,-0.248644,0.0615216,0.0754487,0.190839,-0.206656,0.403919,0.300995,0.00404036,0.309637,0.109959,0.00098861,0.00557306,0.306338,0.100575,-0.00118198,-0.398795,0.000653818,-0.00692342,-0.324747,-0.432675,-0.353766,-0.369157,-0.389919,-0.508857,0.383904,0.281599,-0.21867,-0.0179933,-0.5961,-0.074025,0.140929,-0.634001,-0.217117,-0.409322,-0.29778,0.499495,0.501973,-0.0911631,0.00566153,-0.296716,0.00496833,-0.0974826,-0.00183164,0.296824,-0.0141012,0.378173,-0.23669,0.743871,-0.284911,0.0878683,-0.22262,-0.242963,0.0416574,-0.455175,0.341854,-0.0499978,0.166872,-0.213583,-0.0799637,-0.454613,0.36069,-0.0227346,-0.109028,0.20463,-0.0958175,-0.295765,0.50258,-0.39521,-0.493218,0.000998519,0.800883,-0.506221,-0.21943,0.164205,0.240251,0.2163,-0.0152342,-0.336743,0.137487,0.532549,-0.0735222,0.127576,0.217055,-0.0660471,0.24287,-0.0361128,0.598434,-0.179818,-0.153007,-0.0257675,0.185895,0.597968,0.202528,-0.192798,0.206489,0.403193,0.108859,0.0994767,-0.100637,0.487112,-0.823417,0.247822,-0.373041,-0.10845,0.16199,0.241554,0.0311623,-0.462103,0.0365365,0.333337,-0.271676,-0.0732444,0.242815,-0.239019,0.081846,0.118823,-0.0539578,0.36986,-0.608166,-0.00157745,0.10439,-0.0967579,0.301177,-0.0974543,0.303596,-0.098812,-0.0987655,-0.21747,0.464962,0.0436459,-0.388298,-0.0153633,0.154533,0.246648,0.0455476,0.0483356,0.661019,0.0486816,-0.250146,-0.163499,0.040201,-0.539045,0.0846388,-0.282898,-0.856359,-0.323506,-0.204535,0.00102835,0.10784,-0.299991,-0.196011,-0.190673,0.308575,0.400156,0.19568,0.0834532,-0.0355253,-0.258325,-0.195425,-0.0203916,-0.442738,0.151246,0.458721,-0.12395,0.473231,0.268842,0.458865,0.350991,-0.0490698,-0.133192,0.688431,0.625583,-0.448889,-0.418841,-0.607282,0.300168,0.00653207,0.202901,-0.0906767,-0.198393,0.00349739,-0.596801,0.402086,-0.112782,-1.03361,-0.0665248,0.00580566,0.0687621,0.0633582,0.159104,0.072634,-0.116109,-0.518879,-0.0301754,0.0531567,0.34897,0.0486927,-0.231843,-0.0961195,0.331512,0.0573032,-0.623504,-0.501515,-0.193326,0.00275005,-0.593584,0.0091047,-0.29055,0.000939466,0.306825,-0.305317,0.0827507,-0.340265,0.128625,0.094786,0.169575,0.15958,0.0653354,0.482065,-0.2202,-0.0329442,0.661183,-0.2579,0.140962,-0.251938,-0.0288906,0.00314903,-0.0600684,0.161367,0.0790116,-0.200642,0.107457,0.301627,0.109028,-0.195742,0.00843873,-0.192977,-0.401211,-0.599821,0.278578,-0.342192,0.122817,0.0876985,0.373249,0.157238,-0.432401,-0.0263795,0.456403,-0.247748,0.127876,0.227704,0.627069,0.650545,-0.521265,-0.492413,-0.156197,0.258477,0.279695,0.39022,0.101512,0.00718635,0.109704,-0.591669,-0.294557,0.605226,-0.197267,-0.297623,0.676145,0.249656,-0.777108,0.287197,-0.0249572,-0.33204,0.166921,-0.242738,0.440426,-0.0704199,0.216786,0.417939,0.0266766,0.151166,-0.0184656,-0.389299,-0.565336,-0.443476,0.678505,0.297312,0.498333,0.00683054,-0.1906,-0.0948555,0.401535,0.505652,-0.200111,-0.299421,-0.222864,-0.449117,0.323281,-0.301212,-0.0234608,0.063836,0.0624515,0.356328,0.141874,0.324189,-0.287058,0.128313,-0.162336,0.252914,-0.220982,-0.295072,-0.268648,-0.244022,-0.32567,0.387146,0.202455,0.20717,0.906585,0.504454,-0.293469,0.10114,0.102884,0.293739,0.671185,0.245961,0.222222,0.604653,-0.319621,-0.224631,-0.325157,0.366358,0.0487369,0.529751,0.231962,-0.161855,0.144034,-0.637357,-0.0235719,0.310928,-0.0648942,0.256426,0.177371,-0.208251,-0.00267871,0.107956,0.304201,0.00818361,1.10187,-0.397849,-0.101139,0.491491,-0.426414,-0.349138,0.128319,0.211494,-0.306208,0.0879002,0.186989,-0.227464,0.558324,-0.35871,-0.0540227,-0.0523436,0.0435616,0.155947,0.1788,-0.385549,-0.461767,0.256672,0.380443,-0.209604,0.101935,-0.197841,0.108837,0.00645845,-0.29013,-0.499192,0.497696,-0.60654,-0.534315,0.14855,-0.378555,0.206869,0.0969799,-0.205702,-0.0123422,-0.115536,0.360764,-0.355203,0.143736,-0.861686,-0.0549405,0.166843,-1.21495,-0.0832543,0.139064,-0.339541,0.485244,-0.202899,-0.699679,-0.499105,-0.696301,0.303241,0.108278,-0.197525,0.102882,0.68556,0.167612,0.343104,-0.379198,-0.388503,-0.10296,-0.00853318,-0.0194503,-0.228129,-0.247497,-0.152013,0.0352354,-0.161094,-0.853243,0.261143,-0.00699409,0.0251557,-0.549694,-0.232153,-0.111618,-0.306175,-0.396943,0.404385,0.10459,0.00278775,-0.196417,-0.097021,-0.195313,0.087751,-0.133544,-0.154219,-0.0773641,-0.00383147,0.087466,0.0751288,0.361328,0.452063,-0.0594693,0.132317,0.0236078,-0.163784,-0.0417697,0.172732,-0.490361,-0.0682258,0.559859,0.0757034,-0.107416,0.599941,0.198368,0.00578873,-0.592615,0.00454429,0.00206199,0.104809,0.499211,0.192008,0.576346,0.0466184,0.420806,-0.399274,-0.227747,-0.239486,0.342626,0.031433,-0.279358,0.222661,-0.0795604,-0.0528632,-0.327987,-0.302877,0.224842,-0.446345,0.172484,-0.115551,-0.00761996,-0.299002,-0.199984,-0.692523,-0.290397,0.00127128,-0.491204,0.105461,0.603139,-0.104962,-0.120677,-0.437366,0.138612,-0.191015,-0.0168495,0.0662917,0.449874,-0.26395,-0.0633082,-0.15861,0.157464,-0.0242124,0.093626,-0.570744,-0.24759,0.168481,0.781904,-0.00332459,-0.0988551,-0.199144,0.205934,-0.0991172,-0.292469,0.00759559,0.00909096,0.201495,-0.794693,0.300296,-0.106346,0.172718,-0.146449,-0.166827,0.113477,-0.210093,0.478122,-0.132202,0.371495,0.571172,-0.00841703,0.0089313,-0.368626,-0.145705,-0.0271222,0.183449,-0.103331,0.197109,0.399289,0.00213635,0.00693673,0.00460543,0.00331218,0.00788912,0.00245487,0.308977,0.104779,-0.299454,-0.0990731,0.0903824,-0.41156,0.170951,0.156227,0.140505,0.030552,0.427731,0.225946,-0.167642,-0.0529017,0.156599,0.164819,0.284153,0.285546,-0.298774,-0.100899,-0.192881,-0.295244,0.200086,-0.0903642,0.20105,0.00382714,0.00280941,0.0076849,0.100073,0.302598,-3.50252e-05,-0.397283,-0.502985,0.601354,0.0916897,-0.607905,0.182623,-0.0232671,-0.12146,-0.324829,-0.0165977,-0.217051,0.388716,0.693648,-0.302816,0.00181002,0.297128,0.199374,4.00245e-05,0.00883418,0.10406,0.50012,0.101199,0.00680092,0.00301239,0.00930343,0.00270719,-0.790301,0.207298,-0.696615,0.00262287,0.399737,0.6043,-0.30307,-0.399393,0.0933375,-0.403257,-0.202963,0.393602,0.0960824,-0.204701,0.10234,-0.294359,-0.298568,0.000474408,-0.396445,-0.192997,-0.0928333,-0.693676,-0.0998191,0.00877651,0.00673483,0.00233985,0.00590621,0.0056724,0.00608245,-0.192252,0.706979,0.00686332,0.802682,0.205944,-0.195288,0.406889,-0.100167,-0.294118,0.305307,0.0993955,-0.399838,0.206394,0.00483178,0.102146,0.503831,-0.0958066,-0.191678,0.20757,-0.197031,0.00130961,0.000601504,0.0094748,0.00303131,-2.43833,